//Numpy array shape [128, 10]
//Min -0.207799717784
//Max 0.208110734820
//Number of zeros 0

#ifndef W5_H_
#define W5_H_

#ifndef __SYNTHESIS__
dense_1_weight_t w5[1280];
#else
dense_1_weight_t w5[1280] = {0.0880749077, -0.0813363045, 0.1324817687, -0.0077610612, -0.0224036872, 0.0829227716, -0.1347233057, 0.0673950762, 0.0551308542, 0.0465180129, -0.1183470637, -0.1369074285, 0.1869080216, -0.1623103321, 0.1766284257, -0.1556220502, 0.0681882054, -0.1015529260, 0.0724362582, -0.0681302994, -0.0577849299, -0.0626157522, 0.1596190780, 0.1793960482, 0.1028880924, 0.1248587519, 0.0745890588, -0.1800588220, -0.1057483628, 0.1581704170, -0.1890445352, 0.0391177833, 0.1464035064, -0.1098910570, 0.0083713979, 0.1907502562, 0.1906204969, 0.1350819319, -0.1192158088, -0.1496524811, 0.0285060853, -0.0868093818, -0.1882431954, 0.1317471415, -0.1168666855, -0.0275853425, 0.0954934210, 0.1915517896, 0.1475471109, 0.1119268388, -0.1023486480, -0.1989028603, 0.0867678672, -0.1034252942, -0.0676500648, -0.0724449605, 0.0265982300, 0.1035937220, 0.0782391876, 0.0235442668, 0.1596605331, 0.1478966027, -0.1707842350, 0.1189032048, -0.1285530329, -0.1320377737, -0.0232097358, 0.0879650265, -0.0584654659, -0.1035706550, -0.1653579324, 0.0489467829, -0.0545403063, -0.0642117709, -0.0637032390, -0.1056812555, 0.1291420013, 0.0850794464, 0.1163968295, -0.0676771551, -0.1138926670, -0.1348668784, 0.1883681267, 0.1213444024, -0.0691519678, -0.1024198383, -0.0692028701, 0.1853735596, -0.0599457771, 0.0569566935, -0.0391958803, 0.0076766908, 0.1700627059, -0.1866106987, -0.1213396788, -0.1988051236, -0.0808555633, 0.0591784567, -0.0445027649, 0.0454033166, -0.1643831432, 0.0166149139, -0.1637893170, 0.1023065299, 0.0425857157, -0.0571055412, 0.0512902886, -0.1273502707, -0.0681070387, 0.0744171590, 0.0807751864, -0.0292358845, -0.1902324855, 0.1507804245, 0.1992962509, -0.0827644765, 0.1184844822, 0.1648572832, 0.0548307449, 0.0491067618, -0.0776939243, 0.0211694837, -0.0944674835, 0.1258622259, -0.0913267210, -0.0493377745, -0.1151924804, 0.1161728948, 0.1732270271, -0.0547215194, 0.0756106824, -0.0277303606, -0.0831558704, -0.0985487252, 0.1270659417, -0.0730845183, -0.1284547448, -0.1576039493, 0.1911692470, -0.0626020432, 0.1655581743, -0.1705200076, -0.1180969998, -0.0124181360, -0.1591984034, -0.0481514037, 0.1186598688, 0.1698737293, -0.1099726409, -0.0023225695, -0.0166806430, -0.1869465113, 0.1220118552, 0.0827333182, 0.1823218018, -0.0329516828, -0.1077266261, -0.0356296599, -0.1958666891, 0.0111976117, -0.0151596963, -0.0758014321, 0.1131810099, -0.1096826121, -0.1390216500, 0.0045529753, -0.1712946445, -0.0543732196, 0.0447831601, -0.1152153015, 0.2009367496, 0.1404200941, 0.1584467739, 0.0504231304, -0.1473863274, -0.1282020509, -0.0651870966, -0.0650399029, -0.0338731855, -0.1557087600, 0.0650637001, 0.1121272892, -0.1541673243, 0.1250749081, -0.0691895038, 0.0954487771, 0.0846762210, -0.1679501086, -0.0017871559, -0.1840359718, -0.0264242291, 0.1296665221, -0.1960265189, -0.1968843341, -0.0378235877, 0.0322260112, -0.0732336193, 0.0151524395, 0.1481138319, 0.1888831705, 0.0204864293, 0.1113515049, 0.0228233188, 0.1313972026, 0.0885651857, 0.0607524365, 0.0573651940, -0.0123664290, 0.0227686763, -0.2048103362, 0.1263534576, 0.0450473279, 0.0860969871, -0.1609573811, -0.0941302255, -0.1049673632, 0.1652309150, -0.1272533834, -0.0982594937, 0.0211282223, 0.1336985976, -0.1788085699, -0.0395514369, 0.1167202741, -0.0278772563, -0.0854722336, 0.0390997827, -0.0516010970, -0.1281231642, 0.1540006846, 0.1246090084, -0.1683569700, -0.1582027376, -0.0206447542, -0.0059034079, 0.1414438039, 0.1434389204, 0.0912516564, 0.1879660040, -0.1914652437, -0.0062656105, -0.1077696234, -0.1684204489, 0.1403477639, -0.1255260110, -0.1406883001, -0.1751374602, 0.1049055308, -0.0041118264, -0.1183585003, 0.0494311005, 0.1237993687, 0.0723435730, 0.1064908952, 0.0059163719, 0.1140575260, -0.1049694046, -0.1035148278, 0.0086021125, -0.0065999478, -0.0453851372, 0.0289982557, 0.0874528140, -0.1217686608, 0.0076920539, 0.0206387937, 0.0308512896, -0.1334355772, -0.1923697889, -0.0441569537, -0.0851244852, 0.1811590046, 0.1429310888, 0.2010211200, 0.1448171884, 0.0039802790, -0.1939173192, -0.0791730136, -0.1866714954, 0.0202516764, -0.0971627608, -0.0145950019, 0.0912796408, -0.0073742867, 0.0761401206, 0.1558223516, -0.1374935061, 0.0321699828, 0.1621212810, -0.0187700093, 0.0328354090, -0.0409007072, 0.1797377318, -0.1939717084, -0.0862256438, -0.1851186454, -0.0586280227, 0.1080321223, -0.0555285662, -0.1033192575, 0.0463763326, 0.1622316986, 0.0090339184, -0.0791077912, 0.0750548691, -0.1860187501, 0.1556197554, 0.1990060657, 0.1669818908, 0.1840487570, -0.0200878233, 0.0756025165, 0.0393829942, 0.0364570022, 0.0652907044, 0.1846635491, -0.1068612561, -0.1560474038, 0.1437743455, 0.1123671979, -0.1457157433, 0.0764107257, -0.1086681038, -0.1710456312, -0.0435248464, -0.0203021765, 0.1640686244, 0.1804955155, 0.0106696039, -0.0304718167, -0.0683350265, 0.1776078790, -0.0452686548, -0.0261217207, 0.1137420684, 0.1304586679, -0.0250461698, -0.0105899125, -0.0758333355, 0.1320153624, 0.0081294775, -0.0262649953, 0.0995474905, -0.0043237060, 0.1682101637, 0.1609271914, -0.0011899024, -0.0747522712, -0.0318566412, -0.0594256818, 0.0801625699, 0.1524128765, -0.0083727390, -0.0794292390, -0.1829323322, -0.1151358038, 0.1269231290, 0.0985455364, -0.0213406533, -0.0269553214, 0.1671152264, -0.0732851624, 0.1781692058, 0.0422117561, 0.1924616545, -0.1574533582, 0.0200989991, 0.0686823279, -0.1644753665, 0.1504372209, -0.0187928826, -0.0185445100, 0.0144782215, -0.2030082196, -0.1559883952, -0.0739701688, 0.0899835974, 0.0326231271, -0.1692275554, -0.0080143511, -0.1811483502, -0.1961089522, -0.0924609378, 0.1520415694, 0.0488951653, -0.0610266030, 0.0833004862, -0.1040245965, 0.0168521553, -0.0077825785, 0.0168768615, 0.0408627242, -0.0431494564, -0.1591044962, -0.1177551225, -0.1093078181, -0.0423575640, -0.0170181394, -0.1322193742, -0.0179359168, -0.0889034197, 0.1066900045, -0.0720255673, 0.1130552441, 0.0342447460, -0.0695148706, 0.1151966602, 0.1012847275, -0.1616358757, -0.0570396185, -0.0254995972, -0.2060629278, 0.0271555632, 0.1671773940, 0.1734865755, 0.1558553725, -0.1352728307, 0.0417782217, 0.0495331436, 0.1535123140, 0.1232165843, 0.0585668832, -0.1736662388, 0.0987196416, 0.1091886908, -0.0751094073, 0.1597097069, -0.0682756156, -0.0242520422, -0.1663770676, -0.0018146038, -0.1642998755, 0.0294687897, 0.0114160031, -0.0377934575, 0.0711970478, 0.1488831490, 0.0654456466, -0.1940936595, -0.0854480714, 0.0596672744, 0.0379122645, -0.0288781524, -0.1027828902, -0.1789999306, 0.1261951774, -0.0906878486, 0.1660987288, -0.0001611263, 0.2031941563, 0.0298879743, -0.1535249799, 0.1112474352, -0.1392434239, 0.1490168422, 0.1291492134, 0.0692081898, -0.0049448311, 0.1166295558, -0.0428726077, -0.1994717866, 0.0300273299, 0.1359332353, 0.0550264269, 0.2040667683, 0.1254959553, 0.0568081886, -0.1212392598, -0.1582110524, 0.1286583692, -0.0855532661, 0.1318507344, 0.0725506097, 0.0486737341, -0.0405548960, 0.1913454682, -0.1450329870, 0.1081496924, 0.1055734307, -0.0715134740, -0.1985779256, -0.1324760020, -0.0030073375, 0.0983272940, -0.0555107743, -0.0470115244, -0.0174199343, 0.0433857888, -0.0571983010, 0.0717418045, -0.0715812296, 0.1495623142, -0.1456180215, -0.0750695467, -0.0786893964, 0.0200474560, -0.1829260588, -0.1945962608, 0.1777665168, -0.1721277535, 0.0307413638, -0.1682971567, 0.0020745099, 0.1528099030, 0.1797924191, 0.0420070440, -0.1899417192, -0.1353200674, -0.1794318855, -0.1419048458, -0.0896038860, -0.0461924374, -0.2000998706, -0.1507224739, -0.1432806849, -0.1475509852, 0.0198809654, -0.1663368493, -0.1901443005, -0.0197245032, 0.2004985064, 0.0855687410, -0.1479238868, 0.1447966844, -0.1318527460, -0.0394534469, -0.1666581929, -0.0833116770, -0.1121365279, -0.1009415984, -0.0989917740, 0.1284492761, 0.0995406657, -0.0262654871, -0.0351701081, -0.1986757666, 0.0684354454, -0.0415574759, -0.1118106022, -0.1493199915, -0.1128559336, -0.1782685369, 0.0838406831, -0.1915028691, -0.0027107894, -0.0305968970, -0.1578201950, 0.0199057162, 0.0170828253, 0.1994060129, -0.2015062720, -0.1303251386, 0.0417178124, -0.1383063793, -0.1814351529, 0.0970335454, 0.0167094171, 0.1101733893, 0.1328497380, 0.1275172979, 0.1239784211, -0.0211807787, -0.1282770336, -0.1409642696, -0.1821094155, -0.1053510532, 0.0620812327, -0.1936246604, -0.0372151285, 0.1901456267, 0.0408112705, -0.0886514261, -0.1353007853, -0.1730320454, 0.0222407132, 0.0889260918, -0.1561783999, -0.0951650664, -0.1445961893, 0.1485355049, 0.1040666550, -0.0816430897, 0.0872015208, -0.0628034323, 0.0655317754, -0.0624659210, 0.0631987900, 0.0439782292, 0.0887778550, -0.0317263454, -0.2010817081, -0.0467299372, 0.0444057733, 0.0372038037, 0.1852240711, -0.0131252110, -0.0801246762, -0.1210943386, -0.0871106461, 0.1918767244, -0.1266625226, 0.1170915812, -0.2073294371, -0.1889260709, 0.1331743747, -0.0747642517, -0.1366741210, 0.1638138741, -0.0945307687, -0.1190595627, 0.1270708889, -0.1064888537, -0.1534095407, -0.0995001495, 0.1230003089, -0.1397835612, -0.0242039710, -0.1310759187, -0.1284504235, 0.1082697958, 0.0773753673, -0.1767061353, -0.0474300534, -0.0439868867, 0.2041332275, -0.1372201294, -0.1381207407, -0.1848594248, -0.0417442024, -0.1166261211, -0.0534776896, 0.0480017215, 0.0474223942, 0.1355933100, 0.0458626002, 0.1172938198, -0.0692319125, 0.1378705353, 0.0413267016, -0.2049845904, -0.1915584505, -0.0803121477, -0.1175988242, 0.0894068629, -0.0548145771, -0.0644460618, 0.0565894693, 0.0739688724, -0.1489923894, 0.1665447503, 0.1482834667, -0.1752540469, -0.0158866644, -0.0283821523, -0.1523897201, -0.0626510531, 0.0883613080, 0.1603729874, 0.2080000192, -0.0827081949, -0.1766035259, 0.0365315229, 0.0639549345, 0.1148401648, -0.0533637404, 0.1017986983, 0.0691087097, 0.0074284226, -0.0508791953, 0.0326601118, 0.2070186287, -0.0378068835, 0.1517696530, -0.2061774582, -0.1839488745, -0.1881672293, 0.0465025455, 0.0958597213, -0.0303301364, -0.0692367852, -0.0726935267, -0.0748165399, 0.1226757914, -0.0285706669, 0.0644851476, -0.1222592369, -0.0418858826, 0.0058063120, -0.0696688443, -0.1845565736, -0.1054397449, 0.0287989527, 0.0829024464, -0.0776965618, 0.1542286426, 0.1326300055, -0.0755004585, -0.0154655427, 0.0121310353, -0.1829110086, 0.0724938661, 0.1242238730, -0.0013417304, 0.0409355164, -0.0339015126, -0.0850271434, 0.1372379214, -0.1722635627, 0.1821987182, 0.0701620132, -0.2053913921, -0.1667831242, 0.1416599602, -0.0022719204, 0.0841657966, 0.0668024570, 0.1649592966, -0.0833110213, 0.1789882332, -0.1968257129, -0.0393260717, 0.2060448378, 0.0949537307, -0.1534544826, -0.0489136130, 0.1657773107, -0.1631980240, 0.1281404048, 0.1844799072, -0.0078658015, -0.0844016001, -0.1177294701, 0.0686390251, 0.1574785560, -0.1541511714, -0.0454590619, 0.0233843774, 0.0507207662, -0.0365694612, -0.0631502271, 0.0306918025, 0.1188790053, -0.1370670050, 0.1357635111, -0.0767763108, -0.1801345944, -0.0566289872, -0.0283345729, 0.1504849344, 0.1817955822, 0.0084823072, -0.1430422962, -0.1736670882, -0.0580874830, 0.0882542580, 0.1626078635, 0.0293699652, -0.1552918106, -0.0061100125, -0.1908474416, -0.1020573750, 0.0826530606, -0.0938857272, 0.0064368844, 0.0137146264, -0.0842658281, -0.0308491439, -0.0184580982, -0.0390237272, -0.1150476635, 0.1265310794, 0.1289678365, 0.0050337166, 0.1987658590, 0.0381256938, -0.0746110231, 0.1885224730, -0.1583302021, 0.2014879137, -0.1469543725, -0.0481279343, 0.0645813495, 0.0955505520, -0.0187886506, 0.0466637164, 0.0440030843, 0.1623400301, -0.1030603498, 0.0312150866, 0.1245396882, -0.0837767497, 0.0550218374, 0.0079247057, -0.1598659158, 0.0864296108, -0.2042634934, -0.1634758711, 0.1555559486, 0.1091337651, -0.1194391772, -0.1011808664, -0.1292991936, -0.1035860702, 0.1717689186, 0.1576335281, -0.1579819173, -0.0984319001, 0.0739026517, 0.1888020784, -0.0395145863, -0.0241950154, 0.2056745738, 0.1946179718, 0.0426868349, 0.0384187102, -0.0396381766, -0.1352258623, -0.1906896085, -0.1345283389, -0.0293896943, 0.1728661507, 0.0367446393, -0.0608997345, -0.0970066115, 0.1421113163, -0.1660442799, 0.0749309808, 0.0268184096, 0.0962149650, -0.0162278414, 0.1771355718, -0.0047779828, -0.1368002445, -0.2070243359, -0.1322156936, -0.0178492665, -0.0782920867, -0.0514271408, 0.1586760730, -0.2077997178, 0.1133478433, -0.1800675243, 0.1644119769, -0.1048421338, 0.0184053034, 0.2000707835, -0.1506021172, -0.0505098701, -0.1857769042, 0.1320394725, 0.0233073831, 0.1136141568, -0.0282784998, -0.1594045162, -0.0984853953, -0.1557037383, 0.0343495309, -0.1231823638, -0.0808188319, 0.0101041645, 0.0558527559, -0.0894210413, 0.1004646868, -0.0349448025, 0.0699556023, -0.0431527942, -0.0532920957, -0.1040812656, 0.0937042385, -0.1691857874, 0.0021000057, -0.0260256231, -0.0549153984, 0.1281487793, 0.0077463388, -0.0297293514, 0.1466370076, -0.0151036233, 0.1758338660, -0.0061134398, 0.1561297327, -0.0491045117, 0.1728972048, -0.1708920151, -0.1548560113, 0.1782670468, -0.1925636679, 0.1412469894, 0.0045770854, 0.1517371386, -0.0096122473, 0.0698215514, -0.0943939537, 0.1091374606, -0.1953453422, -0.1824886799, -0.0388560891, -0.0412135124, 0.0597018749, 0.0071114898, -0.0825151652, -0.0876832008, -0.0333294123, 0.0025462359, 0.1752097160, -0.1972620040, 0.0163440704, -0.1675053239, -0.1680836380, 0.0925015062, -0.1650126278, -0.1531717628, -0.1487845331, -0.1946107745, 0.1295348853, -0.1029827893, -0.1993838400, -0.0516678095, 0.2025731653, 0.0258202106, 0.1776920110, 0.0377045125, 0.0137717873, -0.0375898331, -0.0193543881, -0.0518489629, -0.1517239064, -0.0884631053, 0.0042530149, 0.0921857208, -0.0320529193, 0.1845037192, -0.0328434110, -0.1229376793, -0.0865784585, 0.0049834996, 0.1550018340, 0.1236037761, 0.0473239571, -0.0805072784, 0.1633623391, 0.0257020444, 0.1523280591, 0.0607176274, 0.0298597366, -0.1314831674, 0.0642168969, 0.0933954567, -0.0594978631, -0.1383979470, 0.0203657150, 0.0136109740, 0.1650889963, 0.0211900175, -0.0259277374, -0.0781972259, -0.1422345489, -0.1146818697, -0.0821318179, 0.0217719227, -0.0753144324, 0.1285092384, 0.0112247020, 0.1492658705, 0.0718506724, -0.1008789092, -0.1984468400, -0.1116543040, -0.0583544523, -0.1976656765, 0.1723955125, 0.0216531605, -0.1753746569, -0.0675565600, -0.0265433490, 0.0100406259, -0.1952860355, 0.0525839180, -0.1732036024, -0.0130808651, 0.0003991574, 0.0848652273, 0.0532350689, -0.0052461326, 0.1658139080, -0.1426318139, 0.0622819811, -0.0573283583, -0.1012236699, -0.0568451434, -0.1427168250, 0.0122385770, 0.1255486459, 0.1927463263, 0.0434185117, 0.0052092969, 0.0168074518, -0.0360878259, 0.1927751452, -0.0914793909, -0.0953824595, 0.1967907697, -0.1742284000, -0.1503936052, -0.0666876584, 0.1001672596, 0.0301201940, -0.1981790215, -0.1659472883, -0.1606991142, 0.1268446892, 0.2009200901, 0.0724832267, 0.1786856800, -0.1559473872, -0.1808340102, 0.1964964122, -0.0885305181, -0.0042966604, 0.0506096929, 0.1430024654, 0.0235569924, -0.0359562337, -0.0553423017, 0.0903429836, -0.1364841163, 0.1885455102, -0.0046250224, -0.0741860718, -0.1456625164, 0.1069662422, -0.0178284347, 0.0797981173, 0.0140175223, -0.1024067104, -0.0537388325, -0.1430143118, 0.0998185128, 0.0553925186, -0.0577365607, 0.0454965383, 0.1886955053, -0.1356886476, 0.1334430724, -0.1027691737, -0.1293854415, -0.0322847217, -0.0225334913, 0.1322339326, -0.1074350998, 0.0184728205, 0.0416551679, 0.0080542713, -0.1200207248, -0.1133485511, 0.0977953225, 0.1631403118, 0.0013099611, 0.1902663559, -0.1600256413, -0.0804015845, -0.1046506390, -0.1041819900, 0.1919898242, 0.0970016271, -0.0862011835, 0.1499559432, 0.0116378367, 0.1664754003, 0.0017796010, -0.0966983810, -0.0413110405, 0.0175678283, 0.0747457892, 0.1871855408, 0.1167551428, 0.0303143710, -0.0479409248, -0.0023754686, -0.1863685399, -0.0272767693, -0.0863520131, 0.0370147377, 0.0125949234, -0.0306989104, -0.0314047933, -0.0953688920, -0.0908570215, -0.1561842710, -0.1255277693, -0.0670040846, -0.1155261546, 0.1324200779, -0.1899997294, 0.0476959795, -0.0842209384, -0.1817916483, -0.1213654280, -0.1198790371, -0.0989219248, 0.1129571944, 0.0549088866, -0.0943825170, 0.1230788678, 0.0148975551, 0.0890955776, -0.1243946850, -0.1429349184, 0.1743402034, 0.0132271796, -0.0208018124, 0.1623607427, -0.0338517576, -0.1266732216, -0.0515048504, -0.1112224907, -0.1017983630, -0.1422089487, 0.0742344111, 0.0339891165, -0.1480236053, -0.0965463072, -0.0761529952, 0.0306894183, -0.1321433634, 0.1492724568, -0.0318125933, 0.0002128184, 0.0115909427, -0.1199308932, -0.0161954314, -0.1673139185, 0.1201236397, -0.1320031285, 0.1692672223, 0.0647317618, 0.1520397812, -0.0832769275, 0.1859578043, -0.1615176052, -0.0213824660, 0.0742486566, 0.0169472545, 0.1866472811, -0.1921615750, -0.0795249343, -0.1709038466, 0.1413706690, 0.0707541853, -0.0187796056, -0.0675416440, -0.1731803864, 0.0559410602, -0.1989332885, 0.0801965743, -0.0279397070, 0.0110743195, 0.0851334482, 0.0430987030, -0.0305940211, 0.2081107348, 0.0513423234, 0.1290012449, -0.1792125553, -0.0036475509, 0.1663101166, 0.0153381675, -0.0525101572, -0.0697360039, 0.0775271505, -0.2056594044, 0.1332369596, -0.0164168030, 0.0639125854, -0.1018196940, -0.0175373554, -0.1356426626, 0.0279757380, -0.1614075303, -0.0653192848, -0.1201678738, -0.1805131137, -0.0277489424, 0.0687800497, -0.1656431854, -0.1199810058, 0.1956453770, 0.1173176020, 0.1287174970, -0.1158344299, 0.1666997224, 0.1831763238, -0.0800713301, -0.0110893846, -0.0634127259, -0.0140140504, 0.1378512830, -0.0781363249, -0.0328497291, 0.1219351143, -0.1210758984, -0.0130767971, 0.0723125190, 0.2042348534, 0.0205760598, 0.1409372836, 0.2077996880, -0.1680021137, 0.1353495866, -0.0517305881, 0.0166993290, -0.1560314447, -0.1805582941, 0.1333581656, 0.1903355569, -0.0137007535, -0.0328284502, 0.1495129913, 0.1625660509, -0.0828235894, -0.1702803969, -0.0545745641, 0.0917356759, 0.1764672250, -0.0967959240, 0.1087439507, -0.1009231508, 0.0395185649, 0.0427776426, 0.0567211062, -0.1275766641, -0.0939959437, 0.1045462340, 0.1210109144, -0.0208344758, -0.0515353680, 0.1694851071, 0.0873502046, 0.1073566526, -0.1131268218, 0.1442338973, 0.1841934174, 0.1846329719, -0.1390029490, 0.0304311514, -0.1710729301, 0.0527618676, 0.1757666022, -0.0389480591, -0.0392842144, -0.1468944550, -0.0781057477, -0.0160176009, -0.0153103769, -0.0509053022, -0.1802706569, 0.0525812060, 0.1185370237, -0.1887771636, -0.1642352939, 0.0873822719, 0.1986758262, -0.0616010576, -0.1378638148, 0.1907771379, -0.1148129180, 0.2037892789, -0.0583927780, -0.1005181894, -0.0108940154, -0.2033503503, 0.0439737588, 0.0557990223, 0.0052226782, -0.0060270429, -0.1325103939, 0.1780131608, 0.1564716548, -0.1796421707, 0.1399468631};
#endif

#endif
