//Numpy array shape [128, 10]
//Min -0.208363473415
//Max 0.208047196269
//Number of zeros 0

#ifndef W4_H_
#define W4_H_

#ifndef __SYNTHESIS__
model_default_t w4[1280];
#else
model_default_t w4[1280] = {-0.1271046400, 0.1001591533, -0.0050870031, 0.1565193981, -0.0387364179, -0.2024473995, 0.0873849541, -0.0560861081, 0.0337191671, 0.1671614498, -0.1535405815, 0.0187527537, 0.0821240097, -0.2067940086, -0.0566810369, 0.0272795558, -0.0778460950, 0.0621759444, 0.2071171552, -0.1864907444, 0.1630031615, -0.0969139412, -0.0247585177, 0.0988567621, -0.1377102435, -0.1083249301, 0.1974019557, 0.2014135569, -0.1928277463, -0.0048702508, 0.0025072098, 0.1887714416, 0.1554210037, 0.0604822487, 0.0590762943, 0.1440102309, 0.1273541898, 0.0005477965, 0.0902750343, 0.1220700592, 0.0996404439, -0.1796835363, -0.1331255138, -0.0709001571, 0.2079801410, -0.0678417087, 0.0507834405, 0.0031827241, 0.0682455748, 0.0610346049, 0.0648649186, 0.0997952372, 0.1615755707, -0.1493152231, 0.0181912929, -0.0593093932, -0.0096025020, -0.1778466702, -0.1773771644, -0.0864841044, -0.1678700745, -0.0468570590, -0.1952626258, -0.1958434731, -0.1525324434, -0.1288346648, -0.2054411024, -0.0045266300, -0.1204903200, -0.1182466894, -0.1208794788, 0.1616650969, 0.0784083158, 0.0562118739, 0.1586587280, -0.2013329118, -0.1368195862, 0.0046403706, -0.1921041161, -0.1341466755, 0.1838750988, 0.0744161159, 0.2049786299, -0.1676739454, -0.1674744487, 0.1192217320, -0.0831276327, 0.1213977486, -0.0531108975, -0.1124731377, -0.0653208792, 0.0022165328, 0.0210703611, 0.1988617927, 0.0924114138, 0.0237901956, -0.1507624388, -0.1886685491, 0.0871933252, -0.0967281610, 0.0266324729, 0.1268087775, -0.0728475899, 0.1202328652, 0.1489524096, -0.1044496447, 0.1383420080, 0.0554542392, -0.1438100785, -0.1635560095, -0.1693504900, 0.0760965198, 0.0160259157, -0.1468996853, 0.0829199404, 0.0840836912, 0.1013517827, 0.2016922086, -0.1014675722, 0.0455429405, 0.1597290486, 0.1625762433, 0.2078282982, 0.1403500587, -0.1333195865, 0.1563278288, -0.0609969795, -0.0429236144, -0.0033511519, 0.0916846544, 0.0518610328, -0.0095022321, -0.1041210368, -0.0724041462, 0.0634535402, 0.1587315351, -0.0276050270, 0.1033325642, 0.1503663212, -0.1528734863, -0.1803587526, 0.0492179543, 0.1089129895, -0.0116985291, -0.0155777335, 0.1241402477, -0.1982471347, -0.1418573707, -0.0600437671, 0.0930709094, -0.1552216560, -0.1460705996, 0.0666232258, 0.1049530357, 0.0422721058, 0.0400566161, 0.1133951396, 0.0927049667, -0.0070691407, 0.1326338798, -0.1414106935, 0.0763620883, -0.1537037492, -0.1320756078, 0.0610655993, -0.0971070826, -0.0205584019, -0.0411743373, 0.1840295643, 0.1939667314, -0.1000752896, -0.1860684752, 0.0149737149, 0.1400431246, 0.2008296102, 0.1613825709, 0.1904656440, -0.1827618629, 0.2071142644, -0.1903902292, -0.0302646160, -0.0532603860, 0.1436948031, 0.0772413760, 0.0923297852, 0.1157528013, 0.0659744292, -0.1253164262, -0.1970518231, -0.0982881263, -0.0108245611, -0.1282368004, -0.1216692775, -0.0691396445, 0.1838902086, 0.0804594606, -0.0470547676, -0.2004980147, 0.0800436586, 0.0791370124, -0.1692979485, -0.0720438659, 0.0140818506, -0.1496854424, -0.1133148894, 0.1403431445, -0.0164802969, 0.1355619282, -0.0417070687, -0.1780729145, 0.1004934758, 0.1587709635, -0.0947143063, 0.0177786648, -0.1550078392, -0.1171160042, 0.1140767485, -0.1871158928, 0.1245643646, 0.1103752106, -0.1634453535, -0.0834569931, -0.0896180570, -0.1796252280, 0.1278308481, 0.0481227785, -0.1202989221, -0.1993217915, 0.0937006027, -0.1607871652, 0.0395821482, 0.1300193518, -0.2031378746, -0.1635500491, -0.1015438810, -0.1341019273, 0.0283664912, -0.2018199116, 0.0074663460, -0.0576093942, -0.1219918206, 0.0114188939, 0.1261893362, -0.1646287888, -0.1661000550, -0.1005687416, -0.1971400082, -0.0064345896, -0.1048465595, -0.0667031258, 0.1037030965, -0.1600152999, 0.0695586354, -0.1323173642, 0.1714037210, 0.1962466687, 0.0041531324, -0.0767303258, -0.0911119580, 0.2053515762, -0.0492890030, -0.0758805126, 0.0459891111, 0.1406895369, -0.0877694562, -0.1690263599, 0.0535512716, -0.1739829630, -0.1114824414, -0.0452405661, 0.1589421779, -0.0345796645, -0.1178688705, -0.1108651012, 0.1101467460, -0.0109401941, 0.0778730065, -0.1323912442, -0.1682823896, -0.1361010671, -0.0138311982, 0.2080471963, 0.0506453067, -0.1391974986, 0.0426671952, -0.1571649611, -0.0309674591, -0.0232952982, 0.1432055086, 0.0997938067, -0.1588892937, -0.1551397741, 0.1944906563, 0.1648008078, -0.1667587757, -0.1638319790, -0.0948060304, -0.1167064086, -0.1173178926, 0.1347363442, 0.0455140918, -0.1034704372, -0.2008107156, -0.2062368244, 0.0699727982, 0.1597090811, 0.0737784356, -0.1358461380, 0.0807556957, 0.1226930767, 0.1610372812, -0.1218903065, -0.1896164864, -0.1777653396, -0.1651732475, 0.1603447646, 0.1951079220, -0.1691165864, 0.1691567749, -0.0079087615, -0.0176255554, 0.1148956865, 0.1662152559, 0.0848729759, 0.1928117424, 0.1335967928, -0.0070539266, -0.1489455104, 0.0744849592, 0.0497126132, 0.1373927742, -0.1671051681, -0.0173314959, -0.0034641474, -0.0642285645, -0.0530787855, 0.1073707193, -0.1860272586, -0.0201335102, -0.0527315289, -0.1178403795, 0.1091120094, -0.1195294559, -0.0509469062, 0.1454106718, 0.1245527118, 0.0519477576, -0.0613282174, 0.0834019631, -0.0457071811, 0.1089897603, -0.0653120875, -0.1884330064, -0.1463922113, 0.1218582541, -0.0021298826, -0.0964225754, -0.1377996504, -0.0490888506, -0.0164911747, -0.1621169448, -0.1651594788, 0.0995652825, 0.0191967040, 0.0891674906, -0.1339116395, 0.1472496241, -0.1004104093, -0.1040579006, 0.0617954880, -0.0667619258, 0.1562119573, -0.0802022815, -0.1568412781, -0.1673817784, 0.1114844233, -0.1880900264, 0.0786766261, 0.0985967070, 0.1708566099, 0.1969236583, -0.1574424207, 0.1743958741, 0.1831468493, 0.0524346977, -0.0287946761, 0.0576437265, 0.0353676677, -0.2035373747, -0.1203527153, 0.1680042595, -0.1463596970, -0.0795530230, -0.1985085756, 0.1530354470, 0.0149540752, -0.0458078533, -0.0691640526, 0.1507704407, -0.0721647143, 0.1067644507, -0.1089010090, 0.0404404551, -0.0305328220, -0.1577513963, 0.1384534389, -0.0385425836, 0.2076960653, -0.0331704319, 0.1190780550, 0.0347966701, -0.1814301312, -0.0945510492, -0.1560972631, 0.0456976742, -0.1326461732, -0.1196950004, 0.0621391386, -0.0374956727, -0.0381238014, -0.0837169439, 0.1920925230, 0.0585911721, -0.1004263610, 0.1812902242, -0.1647730023, -0.0312064886, 0.0866645724, 0.0873740166, -0.1023240834, 0.1219021529, 0.0673207194, -0.0507755876, -0.1277147233, -0.2083634734, -0.0970333517, -0.0180738717, 0.1664149612, 0.1501093358, -0.1862633973, 0.1476313621, 0.1658074409, -0.1032637283, 0.0453891009, 0.1793807298, -0.0095682442, 0.1146862954, 0.0045285225, 0.0639470965, -0.1256898791, -0.2056105286, -0.1938006431, -0.1850778162, 0.0309798867, 0.1749662906, 0.0122517496, -0.1637155414, 0.0134124160, -0.0739055872, -0.1111714840, -0.0235230923, 0.1618034691, 0.1411934346, 0.1946095675, 0.0328761786, -0.1686580777, 0.0464557558, 0.1374482661, 0.1865627319, -0.1127690822, 0.0696604401, 0.1335412711, -0.1282289624, -0.1965277344, -0.1403278708, 0.0842072219, 0.1925740093, -0.2009777576, -0.1564178765, 0.2056334466, 0.1801470071, 0.1882631332, 0.0722863525, 0.1430211216, 0.1757374257, 0.0519540459, -0.0366457105, -0.1968018115, -0.0962049738, 0.1936023682, 0.0319934040, -0.0645932257, -0.0738178045, 0.0207520872, 0.0348428041, -0.0295225829, -0.1437934637, 0.1219078153, 0.1394037157, 0.1257212907, -0.0968909264, 0.1112157851, -0.1331511587, -0.0592448711, -0.0002253503, -0.1642017365, -0.1391872466, -0.0915267691, 0.1934269518, 0.1103912145, -0.1174631044, 0.0804482251, -0.1755706221, 0.1765602678, 0.0535914749, 0.1772716790, -0.0424941778, -0.0515403450, 0.0571816117, 0.1707428247, -0.0117645562, -0.1465462744, 0.0901257247, -0.0101238936, -0.0699193031, -0.1104178727, 0.1977095157, 0.0883034319, -0.1471953392, -0.1597345769, 0.2013581246, 0.0550847203, -0.1734787673, 0.0724270195, 0.0774828047, -0.1323285997, -0.0186873376, -0.1802160740, 0.0948252827, -0.1260682046, 0.1650049239, 0.1815129071, 0.1476949900, -0.1921513379, -0.0566684604, 0.0153147131, 0.1386532634, -0.1919147521, -0.0109336376, -0.0061545074, 0.0222270489, 0.1199209541, 0.1069004685, -0.0859855264, 0.1778488010, -0.0865077674, -0.1791687608, 0.0238691419, 0.1897981912, -0.0981367975, -0.0269015282, 0.1756948084, -0.1862397343, -0.0827557743, -0.0532402992, 0.0925707966, -0.0410140157, -0.1959027797, 0.0544246882, -0.0426054448, 0.0072464198, 0.1235149950, -0.1970420182, 0.1793833226, 0.0702214092, 0.1992245167, 0.0687263757, -0.1915970743, 0.0917191952, 0.1410100013, 0.0886294097, -0.1369094551, -0.0966223180, -0.0304973274, 0.1434902102, 0.1713631600, -0.1613302827, -0.0815393776, -0.0925525054, -0.0429684520, 0.1399926990, 0.0231039524, 0.0038467944, 0.0537581593, 0.0636186749, 0.1432156414, 0.1382632703, -0.1826778948, -0.0108272433, -0.0112772137, -0.1301451176, -0.1482667625, -0.0079815388, 0.0443652719, -0.0543440431, -0.1905846596, 0.0332883000, -0.0289232880, 0.1138374954, -0.1729595065, -0.1931527704, -0.1432808340, -0.1530220211, 0.1450802535, -0.1102858856, -0.1089884564, 0.1472605020, 0.1222129017, -0.1607111394, -0.0869820863, -0.1664632708, -0.1517403573, -0.1486310065, 0.0456954092, 0.1380819231, -0.1315843761, -0.0169536173, 0.1309472471, 0.0075819939, 0.1000498384, -0.1164609268, -0.1035718471, -0.0500520617, -0.0481211841, -0.0583473444, 0.1967778355, -0.0755378902, -0.1595597267, -0.1625564694, -0.0345094204, 0.2055340558, -0.0840426683, 0.2007069141, -0.1207521111, -0.0776863694, -0.0139550865, 0.2007924765, 0.1789391190, 0.0900335163, 0.0684145540, -0.1396870613, -0.1636111438, -0.0489522368, 0.1072513014, 0.0747308284, -0.1406644881, 0.1546204835, 0.0854589194, -0.1518892050, -0.1575740576, -0.1350233853, 0.1949606985, -0.1511695981, -0.1627041698, 0.0341076851, -0.1680914909, -0.0583142787, -0.1211451963, -0.1576497853, -0.0176474750, -0.1714111269, -0.1842075884, -0.0507833064, -0.0789612234, -0.0651639849, 0.0108124763, -0.1332445145, -0.0945255980, 0.0495861024, 0.0917104036, -0.0575467944, 0.0068611354, -0.0066183358, 0.1102448255, -0.1775266528, -0.1681083441, 0.0214733332, -0.0377967358, 0.0067248195, 0.1121142954, 0.0051998496, -0.1563001573, 0.0058339089, 0.0165625215, -0.1097306833, 0.0000274479, 0.1175070554, 0.1657007486, -0.2009689063, 0.1364045590, -0.1559172571, -0.0879978389, 0.1757146865, -0.0515070260, 0.0268009603, -0.0567539632, 0.1733276993, 0.0341225415, -0.0879568756, -0.1884858906, -0.1165971905, 0.1327018589, -0.0276704580, -0.0210632533, -0.1699220538, -0.1620907038, 0.1283045560, 0.0607365817, 0.1970597655, 0.2048754245, -0.1629232168, -0.0282923728, -0.0776406378, 0.0461955816, -0.0438791513, -0.2080193013, -0.1616715193, -0.0227735043, 0.1445822865, -0.1261410713, 0.0075013936, 0.0826109499, 0.0377288759, 0.0589089543, -0.1337102950, 0.0078544617, 0.0899040252, 0.1381762773, -0.1445536911, 0.1530577689, 0.0671390742, -0.0823692530, 0.0196684897, -0.0282407701, -0.0708604753, -0.0251155645, -0.0042112470, 0.1375443488, 0.0646641999, 0.0591865629, -0.1147133410, -0.0037264377, 0.1247869283, 0.1523125023, 0.1082140654, -0.1975903213, -0.2055539489, -0.0415149778, -0.1904321313, 0.0222229213, 0.0121655464, -0.0519011170, 0.2021573037, -0.1012593210, 0.1507325619, 0.1801163107, 0.1416511685, 0.0033738762, -0.1920146793, -0.0263585001, -0.0168378353, -0.0316637605, -0.1686836779, -0.0658253729, 0.1548512429, -0.1438552737, 0.0206123441, -0.1078473255, -0.2012380064, 0.2052923590, 0.0704129487, 0.1618485600, -0.0403252244, 0.2044891268, -0.0535596609, 0.0677437335, 0.0393308997, 0.1770367771, -0.1760568321, 0.1856937855, 0.1389904171, -0.0433187932, 0.0159948319, 0.1334179193, -0.0218513161, -0.0276832283, 0.0190306008, 0.0004864484, -0.1291429400, 0.1056727916, 0.0097730160, -0.0373276323, 0.1341867000, -0.1347445846, 0.0358926505, 0.0393953770, -0.1863754541, 0.1615176052, -0.0494458973, -0.1133254319, 0.1391096860, -0.0866249427, 0.0047802776, 0.0489030629, -0.1334997416, -0.1598341018, -0.0318730474, 0.1339490265, 0.1039234251, 0.0102700591, 0.0666872710, 0.0480906516, 0.0472938567, 0.0015590191, -0.0637819916, -0.1712802798, -0.0757823884, -0.0746024251, -0.0738182515, 0.0833555609, 0.0902179033, -0.0241080672, 0.0200705677, -0.0795472562, -0.0198068917, -0.1928390265, 0.0274574310, 0.1006439477, 0.0325775892, -0.0092359185, 0.1747674495, -0.1188314259, 0.1886785775, 0.0077442527, 0.1814443618, -0.1064545959, -0.0421202928, 0.1281722337, 0.0642582625, 0.0483909696, -0.0304625779, -0.1388389021, 0.0891219527, 0.0118468255, 0.0942790061, -0.1124560907, 0.1910335869, 0.1520110518, 0.1243153960, 0.1439596564, -0.2001196444, 0.0794041902, 0.1935023218, -0.1165752634, 0.1238182038, 0.0024102628, -0.0218127370, -0.0365714431, 0.0329046547, -0.0492253155, 0.0496071130, 0.1771901995, -0.0499302596, 0.1051946133, -0.0944025517, -0.1619713306, -0.0403174162, 0.0035399646, -0.1249662414, 0.0894009620, 0.1463495940, -0.0356374234, 0.1745022684, -0.0649077594, -0.1444076896, -0.0311177969, 0.0388064235, -0.1188720390, -0.1830169857, 0.1258284897, 0.1724580973, 0.0585315675, 0.1965998262, 0.0718863159, 0.1536792964, -0.0069700181, -0.0937773585, 0.0406145155, -0.0638502538, 0.0978091806, 0.1471751481, -0.0072644204, -0.0711807907, -0.1763880700, -0.0569107682, 0.1510898620, -0.0445596874, -0.1161494181, 0.0976815671, -0.0904538929, 0.0872649997, -0.1964194626, 0.0408775955, 0.1766834110, -0.0216589719, 0.0500818342, -0.1077428833, -0.1737507582, 0.1157739311, -0.0529262125, 0.1460985392, -0.1004673764, -0.1480158567, 0.1294162720, 0.1203369647, -0.0162491202, 0.0956432670, -0.1279257536, 0.0788351446, 0.0740260631, 0.1664754897, -0.1620808095, 0.0446602553, -0.1615662724, 0.0965897590, 0.0143212825, -0.0386676639, 0.1880448014, 0.0923128277, -0.1972694695, 0.0411121398, 0.1315746456, -0.1368926167, 0.1745631248, -0.1329477280, 0.0343354642, 0.0679719001, 0.0458676964, 0.1742823869, 0.1576419622, -0.1402271688, -0.0231437236, -0.1842526197, -0.0689453632, -0.0308191180, 0.1820179373, 0.1791738123, -0.0359573215, -0.0084217489, -0.0511132926, -0.0278088003, -0.1834563166, -0.0528084934, -0.1624104083, -0.1094608381, -0.1640030891, 0.0099394172, 0.1702145189, 0.0786159188, 0.0979213864, -0.1903958470, 0.0075578243, -0.0005930364, -0.1573125720, -0.1048905030, 0.0323290229, 0.0897198766, -0.0093632340, 0.1056754738, -0.1316780895, -0.2011075616, 0.1006232351, 0.0859635919, -0.0075001568, -0.1848727018, 0.1710708886, -0.1421233863, 0.0831109434, 0.1890662163, -0.1709275097, -0.1722241938, -0.1978595108, -0.0503879189, -0.1129989102, -0.1106449664, 0.1745281667, -0.1117314100, -0.1472705901, 0.0945304185, -0.0131484270, 0.1776138693, -0.1491874158, 0.1185971349, 0.0540257841, 0.1795387715, -0.1423518658, -0.0495560616, -0.1366699934, 0.1938335150, 0.1749476045, -0.1673533916, 0.1480659693, 0.0751946718, -0.0248052478, -0.1479326785, 0.1728536636, -0.1484101862, -0.1300798953, 0.1497939080, -0.1836647689, 0.1844806224, -0.0141400248, -0.1789460778, -0.0785903186, 0.2004290670, -0.1312722862, 0.0630567819, 0.1430042535, 0.1356759220, 0.0845141858, -0.0717468262, 0.0322315842, 0.0229060948, -0.0505359769, -0.1830880344, 0.0370990485, -0.1934193820, 0.0198996514, -0.0696099252, -0.1399147511, -0.1603980511, 0.0248215050, -0.0055067390, -0.0952488333, 0.0346522927, -0.0918009877, 0.0038682669, 0.1548821181, 0.0954621583, 0.1786254197, -0.1588819325, 0.0524669439, -0.0117641538, -0.1018944606, 0.0621073991, -0.1179351360, -0.0636300147, 0.0240706354, 0.0111833513, -0.0508019924, -0.0664451122, -0.0906300321, -0.1854375601, 0.1028884500, 0.1061840504, -0.0176859051, -0.0765652210, 0.1814927310, -0.0838753805, 0.1563316733, -0.0420766324, 0.1411981136, -0.1641129106, -0.1330671906, -0.1535272598, -0.1435407698, -0.0210832357, 0.1215970963, -0.0944702625, -0.0758714229, -0.1941162795, -0.0474991053, -0.0382500291, -0.1205108538, -0.1237284690, -0.0547642708, -0.0594858825, 0.0674037784, -0.0645860136, -0.1253070235, 0.0366305560, -0.0554752350, -0.1545478404, 0.0876412839, -0.0738953948, 0.0459511727, 0.0593667179, 0.1678379625, 0.0940518230, 0.1026474684, 0.0999180824, 0.1296083182, 0.1312317699, -0.1070038378, -0.0347944796, 0.0046762675, -0.0158201903, 0.0638508946, 0.0638785511, -0.1776804179, 0.1400039047, 0.1373200864, -0.1017811149, -0.1018901318, 0.0725989193, 0.0290783495, 0.0201021880, 0.0234888792, -0.0234839171, -0.0169145912, 0.0160615593, -0.0995828733, 0.1409105211, -0.0911992043, -0.1963734776, -0.2082521617, -0.0805184543, 0.1655857712, -0.1012267023, -0.1339512020, 0.0638573617, -0.1200140119, 0.0806688517, -0.0662255734, 0.0802349895, -0.1434411108, -0.1732461601, -0.0577108115, -0.1191019639, -0.0290899277, -0.1401203722, -0.2083394676, -0.1296047866, 0.1309233755, -0.1422043741, -0.1795707345, 0.0248976648, 0.0896008462, -0.1691134125, 0.0471798033, 0.1975103170, -0.0614556819, -0.1555784047, 0.0939601511, 0.1227333397, -0.1621775925, 0.1466374546, -0.1376439333, -0.0631027073, -0.0352846980, 0.1992515475, -0.0784980506, 0.1945405751, -0.1206557676, -0.1285454333, -0.0891589001, 0.0509949774, -0.1662382185, 0.1352897435, 0.1811728030, -0.1292893589, -0.1846927851, 0.1528317183, -0.0672658235, 0.2052303106, 0.0052335113, 0.0560892373, 0.1600450724, -0.2067515552, 0.0489306599, 0.1635745615, -0.2028071284, 0.1311603636, 0.1152581424, 0.1918698996, 0.1996781975, -0.1913597435, 0.0583826452, 0.1667991728, -0.1458265632, -0.0358980745, 0.1333813816, 0.0302350819, -0.0569877177, 0.0199265480, -0.2057001591, -0.0458024293, -0.1792382598, 0.1538604051, 0.1031484753, 0.0574379116, 0.0815279037, -0.1314334571, 0.1038997024, 0.0885580629, 0.1657785028, -0.0278758705, 0.1711606234, 0.1442785710, -0.0290853083, 0.1261902899, 0.1137337834, -0.1069023684, -0.1075036079, 0.1891146749, 0.1223221272, 0.2020228058, 0.0219963789, -0.0148078203, -0.0886024535, 0.1793589443, 0.0648615211, 0.1936921030, -0.2002543211, 0.0390072614, -0.0541447401, -0.1698636413, 0.0305654258, -0.1766735762, 0.0625161678, -0.1579847038, -0.1431471407, 0.0175770819, -0.0956715494, -0.1190850139, 0.1509706825, 0.0443070978, -0.1297830641, 0.1860552877, 0.1071265787, 0.1898138076, 0.0319588482, 0.1802881211, 0.0348757505, -0.1703706682, -0.1069946885, 0.0206214935, 0.1747172028, -0.1988168955, -0.0729104728, -0.1462368518, -0.1119400114, -0.0810524821, -0.0231574923, -0.0407876670, -0.2032842338, -0.1380489022, -0.1215599626, 0.1163926274, -0.1850100160, -0.0152640492, -0.1381095648, 0.0421744734, 0.1328990608, -0.0947531834, 0.1645836085, -0.1749429852, -0.1826017350, 0.0740556866, -0.1192851141, -0.0045893192, -0.0613542795, -0.0621827543, 0.1510409862, -0.0438689142, -0.1105864570, 0.1072316617, -0.0509741008, -0.2067831755, -0.2079492658};
#endif

#endif
